digraph Tree {
node [shape=box] ;
0 [label="X[8] <= 1377.5\ngini = 0.4988\nsamples = 2237\nvalue = [1174, 1063]"] ;
1 [label="X[1] <= 11.5\ngini = 0.3353\nsamples = 1239\nvalue = [264, 975]"] ;
0 -> 1 [labeldistance=2.5, labelangle=45, headlabel="True"] ;
2 [label="X[2] <= 809.5\ngini = 0.0579\nsamples = 503\nvalue = [15, 488]"] ;
1 -> 2 ;
3 [label="X[10] <= 1.6333\ngini = 0.0396\nsamples = 495\nvalue = [10, 485]"] ;
2 -> 3 ;
4 [label="gini = 0.426\nsamples = 13\nvalue = [4, 9]"] ;
3 -> 4 ;
5 [label="X[1] <= 7.5\ngini = 0.0246\nsamples = 482\nvalue = [6, 476]"] ;
3 -> 5 ;
6 [label="X[3] <= 113.0\ngini = 0.0131\nsamples = 456\nvalue = [3, 453]"] ;
5 -> 6 ;
7 [label="X[12] <= 156.5\ngini = 0.009\nsamples = 444\nvalue = [2, 442]"] ;
6 -> 7 ;
8 [label="X[3] <= 3.5\ngini = 0.0047\nsamples = 422\nvalue = [1, 421]"] ;
7 -> 8 ;
9 [label="gini = 0.0\nsamples = 366\nvalue = [0, 366]"] ;
8 -> 9 ;
10 [label="gini = 0.0351\nsamples = 56\nvalue = [1, 55]"] ;
8 -> 10 ;
11 [label="X[2] <= 24.5\ngini = 0.0868\nsamples = 22\nvalue = [1, 21]"] ;
7 -> 11 ;
12 [label="gini = 0.2188\nsamples = 8\nvalue = [1, 7]"] ;
11 -> 12 ;
13 [label="gini = 0.0\nsamples = 14\nvalue = [0, 14]"] ;
11 -> 13 ;
14 [label="gini = 0.1528\nsamples = 12\nvalue = [1, 11]"] ;
6 -> 14 ;
15 [label="X[0] <= 1269.0\ngini = 0.2041\nsamples = 26\nvalue = [3, 23]"] ;
5 -> 15 ;
16 [label="gini = 0.0\nsamples = 18\nvalue = [0, 18]"] ;
15 -> 16 ;
17 [label="gini = 0.4688\nsamples = 8\nvalue = [3, 5]"] ;
15 -> 17 ;
18 [label="gini = 0.4688\nsamples = 8\nvalue = [5, 3]"] ;
2 -> 18 ;
19 [label="X[10] <= 0.07\ngini = 0.4477\nsamples = 736\nvalue = [249, 487]"] ;
1 -> 19 ;
20 [label="X[0] <= 31.0\ngini = 0.0788\nsamples = 219\nvalue = [9, 210]"] ;
19 -> 20 ;
21 [label="X[8] <= 12.0\ngini = 0.039\nsamples = 201\nvalue = [4, 197]"] ;
20 -> 21 ;
22 [label="gini = 0.2778\nsamples = 18\nvalue = [3, 15]"] ;
21 -> 22 ;
23 [label="X[10] <= 0.0543\ngini = 0.0109\nsamples = 183\nvalue = [1, 182]"] ;
21 -> 23 ;
24 [label="gini = 0.0\nsamples = 174\nvalue = [0, 174]"] ;
23 -> 24 ;
25 [label="gini = 0.1975\nsamples = 9\nvalue = [1, 8]"] ;
23 -> 25 ;
26 [label="gini = 0.4012\nsamples = 18\nvalue = [5, 13]"] ;
20 -> 26 ;
27 [label="X[9] <= 6.6556\ngini = 0.4974\nsamples = 517\nvalue = [240, 277]"] ;
19 -> 27 ;
28 [label="X[14] <= 8.5\ngini = 0.4935\nsamples = 386\nvalue = [215, 171]"] ;
27 -> 28 ;
29 [label="X[1] <= 51.5\ngini = 0.4764\nsamples = 327\nvalue = [199, 128]"] ;
28 -> 29 ;
30 [label="X[10] <= 0.2183\ngini = 0.4781\nsamples = 86\nvalue = [34, 52]"] ;
29 -> 30 ;
31 [label="X[11] <= 10.5\ngini = 0.2112\nsamples = 25\nvalue = [3, 22]"] ;
30 -> 31 ;
32 [label="gini = 0.42\nsamples = 10\nvalue = [3, 7]"] ;
31 -> 32 ;
33 [label="gini = 0.0\nsamples = 15\nvalue = [0, 15]"] ;
31 -> 33 ;
34 [label="X[2] <= 3.0\ngini = 0.4999\nsamples = 61\nvalue = [31, 30]"] ;
30 -> 34 ;
35 [label="gini = 0.1975\nsamples = 27\nvalue = [24, 3]"] ;
34 -> 35 ;
36 [label="gini = 0.327\nsamples = 34\nvalue = [7, 27]"] ;
34 -> 36 ;
37 [label="X[1] <= 1419.0\ngini = 0.4318\nsamples = 241\nvalue = [165, 76]"] ;
29 -> 37 ;
38 [label="X[3] <= 395.0\ngini = 0.3811\nsamples = 203\nvalue = [151, 52]"] ;
37 -> 38 ;
39 [label="gini = 0.4195\nsamples = 167\nvalue = [117, 50]"] ;
38 -> 39 ;
40 [label="gini = 0.1049\nsamples = 36\nvalue = [34, 2]"] ;
38 -> 40 ;
41 [label="X[8] <= 1034.5\ngini = 0.4654\nsamples = 38\nvalue = [14, 24]"] ;
37 -> 41 ;
42 [label="gini = 0.3578\nsamples = 30\nvalue = [7, 23]"] ;
41 -> 42 ;
43 [label="gini = 0.2188\nsamples = 8\nvalue = [7, 1]"] ;
41 -> 43 ;
44 [label="X[3] <= 88.5\ngini = 0.3953\nsamples = 59\nvalue = [16, 43]"] ;
28 -> 44 ;
45 [label="X[0] <= 1346.0\ngini = 0.2676\nsamples = 44\nvalue = [7, 37]"] ;
44 -> 45 ;
46 [label="X[0] <= 22.0\ngini = 0.1567\nsamples = 35\nvalue = [3, 32]"] ;
45 -> 46 ;
47 [label="gini = 0.3967\nsamples = 11\nvalue = [3, 8]"] ;
46 -> 47 ;
48 [label="gini = 0.0\nsamples = 24\nvalue = [0, 24]"] ;
46 -> 48 ;
49 [label="gini = 0.4938\nsamples = 9\nvalue = [4, 5]"] ;
45 -> 49 ;
50 [label="gini = 0.48\nsamples = 15\nvalue = [9, 6]"] ;
44 -> 50 ;
51 [label="X[3] <= 2197.5\ngini = 0.3088\nsamples = 131\nvalue = [25, 106]"] ;
27 -> 51 ;
52 [label="X[10] <= 0.6445\ngini = 0.1876\nsamples = 105\nvalue = [11, 94]"] ;
51 -> 52 ;
53 [label="gini = 0.4844\nsamples = 17\nvalue = [7, 10]"] ;
52 -> 53 ;
54 [label="X[12] <= 32.5\ngini = 0.0868\nsamples = 88\nvalue = [4, 84]"] ;
52 -> 54 ;
55 [label="gini = 0.3599\nsamples = 17\nvalue = [4, 13]"] ;
54 -> 55 ;
56 [label="gini = 0.0\nsamples = 71\nvalue = [0, 71]"] ;
54 -> 56 ;
57 [label="X[2] <= 14.5\ngini = 0.497\nsamples = 26\nvalue = [14, 12]"] ;
51 -> 57 ;
58 [label="gini = 0.32\nsamples = 10\nvalue = [8, 2]"] ;
57 -> 58 ;
59 [label="gini = 0.4688\nsamples = 16\nvalue = [6, 10]"] ;
57 -> 59 ;
60 [label="X[9] <= 47.4088\ngini = 0.1608\nsamples = 998\nvalue = [910, 88]"] ;
0 -> 60 [labeldistance=2.5, labelangle=-45, headlabel="False"] ;
61 [label="X[10] <= 0.0574\ngini = 0.1284\nsamples = 972\nvalue = [905, 67]"] ;
60 -> 61 ;
62 [label="gini = 0.3367\nsamples = 14\nvalue = [3, 11]"] ;
61 -> 62 ;
63 [label="X[1] <= 45.5\ngini = 0.1101\nsamples = 958\nvalue = [902, 56]"] ;
61 -> 63 ;
64 [label="X[4] <= 0.5\ngini = 0.3903\nsamples = 79\nvalue = [58, 21]"] ;
63 -> 64 ;
65 [label="X[9] <= 3.6366\ngini = 0.5\nsamples = 42\nvalue = [21, 21]"] ;
64 -> 65 ;
66 [label="X[3] <= 10.0\ngini = 0.4281\nsamples = 29\nvalue = [20, 9]"] ;
65 -> 66 ;
67 [label="gini = 0.4938\nsamples = 18\nvalue = [10, 8]"] ;
66 -> 67 ;
68 [label="gini = 0.1653\nsamples = 11\nvalue = [10, 1]"] ;
66 -> 68 ;
69 [label="gini = 0.142\nsamples = 13\nvalue = [1, 12]"] ;
65 -> 69 ;
70 [label="gini = 0.0\nsamples = 37\nvalue = [37, 0]"] ;
64 -> 70 ;
71 [label="X[9] <= 6.7071\ngini = 0.0765\nsamples = 879\nvalue = [844, 35]"] ;
63 -> 71 ;
72 [label="X[5] <= 27.0\ngini = 0.0389\nsamples = 706\nvalue = [692, 14]"] ;
71 -> 72 ;
73 [label="X[0] <= 38.5\ngini = 0.2873\nsamples = 23\nvalue = [19, 4]"] ;
72 -> 73 ;
74 [label="gini = 0.1244\nsamples = 15\nvalue = [14, 1]"] ;
73 -> 74 ;
75 [label="gini = 0.4688\nsamples = 8\nvalue = [5, 3]"] ;
73 -> 75 ;
76 [label="X[1] <= 37215.5\ngini = 0.0289\nsamples = 683\nvalue = [673, 10]"] ;
72 -> 76 ;
77 [label="X[3] <= 1.5\ngini = 0.0207\nsamples = 669\nvalue = [662, 7]"] ;
76 -> 77 ;
78 [label="gini = 0.18\nsamples = 20\nvalue = [18, 2]"] ;
77 -> 78 ;
79 [label="gini = 0.0153\nsamples = 649\nvalue = [644, 5]"] ;
77 -> 79 ;
80 [label="gini = 0.3367\nsamples = 14\nvalue = [11, 3]"] ;
76 -> 80 ;
81 [label="X[4] <= 0.5\ngini = 0.2133\nsamples = 173\nvalue = [152, 21]"] ;
71 -> 81 ;
82 [label="X[9] <= 23.6095\ngini = 0.4767\nsamples = 51\nvalue = [31, 20]"] ;
81 -> 82 ;
83 [label="X[12] <= 50.5\ngini = 0.4392\nsamples = 43\nvalue = [29, 14]"] ;
82 -> 83 ;
84 [label="gini = 0.4922\nsamples = 16\nvalue = [7, 9]"] ;
83 -> 84 ;
85 [label="gini = 0.3018\nsamples = 27\nvalue = [22, 5]"] ;
83 -> 85 ;
86 [label="gini = 0.375\nsamples = 8\nvalue = [2, 6]"] ;
82 -> 86 ;
87 [label="X[1] <= 13264.0\ngini = 0.0163\nsamples = 122\nvalue = [121, 1]"] ;
81 -> 87 ;
88 [label="gini = 0.0\nsamples = 108\nvalue = [108, 0]"] ;
87 -> 88 ;
89 [label="gini = 0.1327\nsamples = 14\nvalue = [13, 1]"] ;
87 -> 89 ;
90 [label="X[8] <= 2760.5\ngini = 0.3107\nsamples = 26\nvalue = [5, 21]"] ;
60 -> 90 ;
91 [label="gini = 0.1049\nsamples = 18\nvalue = [1, 17]"] ;
90 -> 91 ;
92 [label="gini = 0.5\nsamples = 8\nvalue = [4, 4]"] ;
90 -> 92 ;
}